solver_type L2R_L2LOSS_SVC_DUAL
nr_class 7
label 1 2 3 4 5 6 7
nr_feature 245
bias 1
w
-0.2785394430508399 0.1779702465432533 -0.06080539381735394 -0.040594376668366 0.1793739145427817 -0.1758479070819441 -0.03920461448429203 
0.02287124047136921 -0.1317536047099494 -0.06766478570318564 -0.142554860538407 -0.004318423329355359 0.03397533772144707 -0.03200273064379341 
0.0251111270108145 0.06213310600728211 -0.09623381353052002 0.02003982339171068 -0.3415609122897792 0 -0.1128304387341386 
-0.5429071341452532 1.602272855329874 -0.2738776973857459 -0.1785898458001204 -0.3177184336910974 -0.91589851114831 -0.1260878544874825 
0.2982280164261584 -0.2054561167347133 -0.04025372946826223 0 -0.1454890298580941 0 0 
0 -0.1802024420590434 -0.03122700657386148 0 -0.05205115097380536 0.2149008334814833 -0.0329300722147827 
0 -0.09147940825406234 -0.05423581257094463 -0.02574235531966714 -0.05637086342307633 0.6253946706736349 0 
-0.05773586203418193 0 0 0 -0.05726853813856558 -0.0390390668576563 0.06808336517563625 
0 -0.01462791516840295 0 -0.02704576638007352 0 -0.1101491882589277 0.1647249399641642 
0 -0.05607114174025944 0 -0.01847965645296174 0 0.2751318436823311 0 
-0.003638465542228504 -0.04210680189904786 0 8.673617379884035e-19 -0.01855457405156786 -0.1299866080265044 0.1264766001619437 
-0.0330000727779867 -0.0366648986519066 -0.1809915255709605 -0.001843946727569243 0 -0.2444899730112188 0.4639046648706613 
-0.003151961151561293 -0.01462791516840295 -0.1625578528851251 0.203555205923056 -0.3091597930057849 -0.05206061119480672 -0.1396777862904718 
0 0 -0.0231781394418374 -0.05230801583262185 -1.734723475976807e-18 -0.05931290517576941 0.09710935105286106 
0 -0.003224541918966695 0 0 -0.09337599879745247 0.1385114591907705 -0.04059595708114914 
-0.182688852697469 0.1929707739740994 -0.1671248021622501 -0.2448258009999742 0.2391281553641176 0.07190349287532904 -0.04059595708114917 
0 -0.003224541918966699 0 0 0 0.02583091222848495 -0.03200273064379342 
-0.02509367014482421 0.2371932350927033 -0.1469849594947034 0.1951197305479077 -0.08273423577765475 -0.008710001789886259 0.004210092373456445 
-0.1026499266586256 -0.1427708871245443 0.0759354875575092 0.1759550852362972 -0.04037760613567552 0.02942266713092958 -0.126670675180034 
-0.146497824011392 -0.01245092946245089 -0.03856898521127921 -0.06954334890566846 0 -0.0823869628502112 0.3827225270188889 
-0.1824881688663392 -0.1676496867219806 -0.4358140852276511 -0.4967757171679816 0.3805333129920261 0.4679922073206603 0.1884760550081864 
-0.3125155471389012 -0.1462166105217434 -0.2148724870811102 -0.2082387828719498 0.404614340359974 -0.05238591473747405 0.1184691197875186 
0 -0.01462791516840295 0 -0.02704576638007352 0 -0.1101491882589277 0.1647249399641642 
-0.03895747916478935 -0.110044089495684 -0.417229552297339 -0.1625731870194616 0.5522284786014698 0 -0.03254036252554217 
0.2570938648506418 -0.06603093823017413 0.1902507812365756 -0.264417228480723 0.4431385529830655 -0.3028228626544519 -0.1257944188003362 
-0.003235621137704792 0 -0.1049125595832052 -0.09895716686918984 -0.3430873243183361 -0.1275839415793386 0.285022865263584 
-0.2088486515441704 -0.001853234606240833 -0.02615554290241547 -0.04706141932084712 0.1722468893446446 0 -0.003337975461445623 
-0.09148124976079569 -0.05734553618123415 -0.2066343489658446 0.1245256932463844 -0.4598433353372345 -0.3194224202376776 0.3031057245004079 
-0.6646821813814181 -0.0120511484434024 -0.1997338902164274 -0.121633662524685 0.675544279151707 -0.008029915088488111 -0.1506723343461785 
-0.1826888526974691 -0.1509920319413691 -0.006826223660091293 0.0194144227435035 0.418273438413624 -0.1730724130620411 0 
-0.2591074675059646 0.241378919416268 0.02710904620400753 -0.3366319315544755 0.1753459981748175 0.1155683348658798 -0.1607134607361989 
0.3244325463097083 -0.1073368692213442 -1.387778780781446e-17 -0.0837195243078481 0.05898828291815841 -0.1656419935491905 -0.06400868283893546 
0 -0.001485666526875109 0 -0.02955933509963881 0 -0.07156413264438724 -0.03078823584196093 
0 0.1549699322528325 0.2840284430691562 0.2063989174550526 0 -0.3605338871989086 3.469446951953614e-18 
-0.1429994863908629 0 -0.2048261399490595 -0.01596751977348374 0 0 0.2899214695570603 
0 -0.02927569383060773 -0.07269191619534877 0 0 -0.1221194329312712 0.1372492364230267 
-0.0571220506158078 -0.3288672852673759 -0.3859621929421999 -0.3130308457267146 -0.3293214326359752 1.042603567807928 -0.2437717703115814 
-0.367324019646632 0.7801551224467846 6.938893903907228e-18 -0.126253210555407 -0.3411526487110849 -0.01303950471432872 -0.103374858528502 
0 0 0 0 0.2941209482466191 0 -0.09895597106144041 
0 0 -0.05856119936650178 -0.09895716686918982 -0.02037406079652202 -0.07862898054138218 0.1680415517273119 
1.214306433183765e-17 -7.806255641895632e-18 -0.1882619477483437 -0.01171363916425585 -0.09702014205728304 -0.4904480563536162 0.1843151246812995 
-0.1921989155627037 -0.2816495549704846 -0.1192684230006852 -0.1802819098386096 -0.1847259067976102 0.2034196357151734 0.288073040233595 
-0.3122340416069243 -0.02667347180252747 -0.2090221353349888 -0.06262611530130642 0.1349146000495146 0.1920026424772354 -0.04210100834653562 
-0.03058353141238117 0 0 -0.007880842751798381 -0.1886400662137556 -0.05770882873211511 0.378058955497841 
8.673617379884035e-19 0 -0.1365407478131768 8.673617379884035e-19 0 0.2523363703125627 -0.082989493382347 
-0.2039177037316544 0.535432311995209 -0.1086858286676313 -0.1939291213667415 0 -0.02954941679590662 -0.04281494540529435 
0.3538786341156395 -0.03925215450847731 -0.06766478570318563 -0.1162298285033457 -0.001700687980628548 -0.1401986985297146 0 
-0.1972107570631361 -0.4003455419641924 0.351927708391328 -0.08885727313560671 -0.2444811224308315 0.5007595466132738 -0.06682187806124197 
-0.06833344151809104 -3.469446951953614e-18 -0.04347357893798327 -0.01773176915603041 -1.474514954580286e-17 0 9.540979117872439e-18 
-0.08759439673912636 0.4268785500267054 3.469446951953614e-18 -0.1068233114545038 -0.1457603331563036 -0.05117963291019022 -0.103374858528502 
0.2027224842252303 -0.04235881818546896 -0.1211997573431565 -0.1248570381403449 -0.1486417424927247 0.1079299815184034 -0.188917013884966 
0.009192814512360222 -0.11395828073982 -0.1809915255709605 -0.06954334890566849 -0.1950738155935401 -0.203220496623751 0.4656104700477246 
-0.1826888526974691 -0.4198158891039406 0.3617540129872593 0.3491961019769474 0.4008011073101372 -0.5346857721052241 -0.1217752655166054 
-0.6470415978690268 -0.3945042623111204 -0.6425541070047668 1.85074199926473 -0.07551149795971776 -0.4250259160931051 -0.09714633363531461 
0 0 0 0 0 0.1843081830920831 -0.2082445853498351 
-0.2066417577090196 -0.2224861572369606 -0.8022570526986644 1.105932421461945 -0.5019476580005231 0.2082721287673711 -0.2329464066348978 
-0.07014417308096574 -0.2003517406184721 -0.0312270065738615 1.734723475976807e-18 -0.07639141814336073 0.2955203505713073 -0.06711035636433342 
-0.3377601700290626 -0.01829889211064965 -0.1997664744095609 -0.134048615085561 0 0 0.1697511442056129 
0 0 -0.1809915255709605 0 0 -0.203220496623751 0.2488412082514715 
0.3510716615272026 -0.04914186598134668 0 -0.0145194766400663 0 -0.1852846784678997 0 
-0.06090846296870581 0.4043123475293361 0 0 -0.02434026716955538 -0.1626241641247375 -0.0341802841495507 
-0.2039177037316544 0.2618243634133617 0.28234095074585 0.1211248877669841 -0.1936862556108228 -0.3665008831244161 -0.04281494540529435 
-0.0330000727779867 -0.0366648986519066 0 -0.00184394672756925 0 0 0.09471421118864412 
0 -0.03329634588855105 0.413685904241065 -0.04582611471044428 0 -0.4214376403732585 0 
0 0 0 -0.4594300442249028 0 0.1394436234293747 0 
0 0 0 0 -0.09337599879745247 0.1126805469622856 -0.008593226437355732 
-0.2622621808027835 0.1952937839430033 -0.07208337144244273 0.09082871746189033 0.0285219914533739 0.1187116378039747 -0.1468882459815012 
-0.287309507076437 -0.243899673512593 -0.01333482090296143 -0.1892813892344758 0.4915922958259969 -0.246870697760929 -0.1439395117082373 
-0.1079274213985961 -0.0151967934175039 -0.007958716085920695 -0.1852275525347773 0 0.359855083217973 -0.1202809532512082 
0 -0.003224541918966695 0 0 -0.09337599879745247 0.1385114591907705 -0.04059595708114914 
0 -0.02927569383060773 -0.07269191619534877 0 0 -0.1221194329312712 0.1372492364230267 
-0.05773586203418193 0 0 0 -0.05726853813856558 -0.0390390668576563 0.06808336517563625 
-0.0351080753919418 -0.08544700893219304 0 -0.08371952430784813 0.2350883325914804 0.1003713309949091 -0.07307638146839099 
-0.06374013635625142 0.2811895352719229 -0.3848290691456111 0.2919448668031678 0.1552308485246593 -0.3112049574368733 -0.03248042438724178 
0 -0.003224541918966695 0 0 -0.09337599879745247 0.1385114591907705 -0.04059595708114914 
-0.06727082086644723 0 0 0 0.2641275968316549 0 -0.09529277283258049 
-0.06374013635625142 0.2779649933529561 -0.3848290691456111 0.2919448668031678 0.06185484972720699 -0.1726934982461023 -0.07307638146839099 
-0.008444925564159824 0.0611754551932033 0.04611704737786452 0.01779975281729663 -0.1451754083371832 -0.01048420127929527 -0.04567282499206674 
0 0 -0.0231781394418374 -0.05230801583262185 -1.734723475976807e-18 -0.05931290517576941 0.09710935105286106 
-0.05773586203418193 0 0 0 -0.05726853813856558 -0.0390390668576563 0.06808336517563625 
0 0 -0.07269191619534877 0 0 -0.1221194329312712 0.1372492364230267 
-0.160245953261885 -0.09238357195949709 -0.1746886567144693 -0.008627209636999096 -0.1443233191633694 0.7150914358660301 -0.188917013884966 
-0.05828353057522005 -0.04648972852696481 0.04881386380038275 0.211904601203029 -7.589415207398531e-18 -0.1101491882589277 0.1391813032970959 
-0.06918298953669072 -0.133669336224753 -0.1183935719759479 -0.127611758901925 0.06023942646512023 0.2319941603284655 -0.2949503787923574 
-0.01223701968841313 -0.07603017515642936 0.06967049442111273 0.09452080707322862 -0.229466615297338 -3.469446951953614e-18 0 
-0.1734838527760231 -0.05718931785735766 0.1689201777965889 0.1944878469345186 0 -0.3591685523381695 0.09350039814862968 
-0.1538552190330571 1.734723475976807e-18 -0.2060669666245484 -0.04059437666836599 -1.734723475976807e-18 0.4627200779909195 -0.078442129031653 
-0.2039177037316544 0.476031762616888 -0.1086858286676313 -0.1939291213667415 0 -0.02954941679590662 -0.01347189960135216 
0 -0.120314715928957 -0.06665171837982067 -0.07297371638960083 -0.39040026804672 -0.3002796584079763 0.6923540852200802 
0.1144870988900238 -0.06312859537193347 -0.1904930275419653 -0.221727790861004 -0.4103493071148912 0.2743495674665394 -0.1859115199200592 
-0.0330000727779867 0 0 0 0 0 0 
-0.03058353141238117 0 0 -0.007880842751798381 -0.1886400662137556 -0.05770882873211511 0.378058955497841 
-0.3293220135520279 -0.06274514982316901 0.1582112644284936 0.1164616175507379 2.42861286636753e-17 -0.1817685009412659 -0.06084259790307468 
0 6.938893903907228e-18 0.5135514809906534 0.2327004883149306 -0.3091597930057848 -0.1635785364991723 -0.2407169829505343 
0.1565810448050667 -0.2249367019769548 0.2052630368051065 0.04650471694350657 -0.04845596684162065 -0.233421062631509 0.1353812558290245 
-0.2008520973584136 -0.2029673392894475 2.775557561562891e-17 -0.09884541459995842 -0.02029167551003619 0.4358345267180978 -0.09403181989775417 
0 -0.07603017515642936 0.1110751523321783 -0.009361028398682518 -0.07166523210950491 -3.469446951953614e-18 0 
0.199570523073669 -0.03925215450847731 -0.07790843838996363 -0.1183293445151468 -0.004318423329355387 -0.02716892082734151 -0.06368574330410158 
0 0 -0.4254953356297604 0 0 0.09608343297135273 0 
-0.1478739663161157 -0.1224950189581349 0.4746978575604344 0.4067073067092523 -0.1603231718218535 -0.5871178225484558 -0.1148419789846116 
0 0 0.185382939722732 -0.2492183509876152 -0.002561303339797695 0 0 
0 0 0 0 -0.01053648756754326 -0.1299866080265044 0.0113370617783318 
-0.02863206096430959 -0.1332194930137869 -0.3848290691456111 0.722950574805754 -0.2133356092584925 -0.05904943420253055 0 
0.2798826272386966 -0.5023283358755271 0.2097494103957873 -0.04069818925920273 -0.1128152560450884 -0.1634766365651384 0.1870208277988699 
-0.04045053374707311 0.1983447191601334 -0.4831754504586859 -0.2323844493609964 -0.07564363085643007 0.2082442033786718 -0.05213519817308607 
-0.386825269426445 0.04386660749632865 0.3587921178838204 -0.02299033598219179 -0.03983579620172179 -0.1475205900338106 -0.1780391794435298 
-0.06090846296870581 0.4043123475293361 0 0 -0.02434026716955538 -0.1626241641247375 -0.0341802841495507 
-0.2797296229075055 0.3532765724200783 0 -0.01942989910090324 -0.2354944419489996 0 0 
-0.1429994863908629 -0.02927569383060774 -0.2775180561444084 -0.01596751977348374 0 -0.1221194329312712 0.4271707059800869 
-0.1356771460713065 0 -0.00727042217738314 0 -0.08648365448973971 3.469446951953614e-18 0.1584605213245633 
0 -0.0768419125625235 -0.1169393226955263 -0.03562745906380675 0 -2.775557561562891e-17 0 
-0.8840431707807204 0.8828782103363345 -0.1405720842254407 0.1470553342007382 -0.1350707002880452 -6.938893903907228e-18 0 
0 0 0 0 -0.01053648756754326 -0.1299866080265044 0.0113370617783318 
-0.06544840968800367 -0.07342610858424632 0.03860074910450336 0.3085674513178466 0.6851277504415941 -0.3830476464345378 -0.09161413465078552 
-0.05116293176575157 -0.4198158891039406 0.0114891888534429 0.3094365534923342 -0.07942703570596732 -0.6133147526466055 0.2791695614015666 
0 -0.003106663676991622 -0.2345264972109312 -0.008627209636999096 -0.1443233191633694 0.0449081834243671 0.05992419436650551 
0.3510716615272026 -0.04914186598134668 0 -0.0145194766400663 0 -0.1852846784678997 0 
0 -0.0960152290229816 0 0 0 0 0 
0 0 -0.3393282653544916 0 -0.3758691011211506 -0.1782814964297662 0.5596954214585503 
-0.3341593547958311 -0.08927690828250547 -0.4357389883165384 -0.4878545922717648 -0.2928227014679199 0.6522839282506581 -0.06368574330410152 
-0.06727082086644723 0 0 0 0.2641275968316549 0 -0.09529277283258049 
0 0 -0.07269191619534877 0 0 -0.1221194329312712 0.1372492364230267 
0 -0.05940054937832127 0 0 0 0 0.02934304580394216 
-0.06753399646481578 0.3184635844954111 -0.4528716269008471 -0.42103365844445 -0.1230302156087417 0.2031281527838817 -0.1887854991417092 
0 -0.03329634588855105 0.413685904241065 -0.04582611471044428 0 -0.4214376403732585 0 
0.8750949904829766 0.0563155182080084 0.04269428741540247 -0.1019168186831055 -0.7862609174860642 -0.3612309880533381 -0.2773744428698086 
-0.1511561498904093 0 0 0 -0.002617735348726822 0 0 
0 0 -0.07269191619534877 0 0 -0.1221194329312712 0.1372492364230267 
-0.02856977954205293 -0.00276985459770515 0 0 0 0.08364995050201805 -0.04848536949611346 
-0.003638465542228504 -0.04210680189904786 0 0 -0.008018086484024613 0 0.115139538383612 
0 -0.02927569383060773 0 0 0 0 0 
-0.05773586203418191 -0.05940054937832127 0 0 -0.05726853813856558 -0.0390390668576563 0.09742641097957841 
0.1155838947655377 -0.1091901038275848 -0.02615554290241546 -0.1307809436286953 0.2312351722628031 -0.1656419935491905 -0.06734665830038114 
-0.01395989942485196 0 -0.08255920066545848 -0.02518593744986921 0 0 -0.01933822016113209 
-0.05091739668639911 0.003792469607468159 -3.469446951953614e-18 -0.02325672030079528 0 0.2679581335941009 -0.2393113202604896 
0.4557243193839156 0.2655549786523994 -0.4334250330955255 -0.1958633383517588 -0.03341568710987373 0 -0.1560005573752893 
-0.06090846296870581 0.2790214246757466 -0.07269191619534877 0 -0.02434026716955538 -0.2847435970560085 0.1030689522734759 
-0.2039177037316544 0.4096280853294926 -0.1880060024591489 0.2937870980446843 -0.03901934046616142 -0.2026218298579476 -0.04281494540529435 
-0.09098410556851724 -0.01136032040525367 -0.002051617871271311 0.08206085449693371 0.3742625308677099 -0.4760882267386722 -0.06699644116411954 
0 0 0 0 0 0.08364995050201805 -0.04848536949611346 
-0.1089164871513264 -0.01245092946245088 0 -0.06954334890566846 0 0 0.1696140401559192 
-0.1206820676255829 1.301360659623715 -0.2929846957560666 -0.1453939835676148 -0.09577458110491127 -0.6920026369890763 -0.09979141681716701 
-0.03701320072375978 0.07121455133685296 -0.2280067038489877 -0.1405986224791846 0.135031798667751 -0.02709168437712046 -0.0741667825433568 
0 0 0 -0.02632503203506108 0 0 0 
-0.1168514636675154 0 1.22026393387259 -0.2492183509876152 -0.002561303339797695 -0.6814577556150673 -0.05250848488939063 
1.301042606982605e-18 0 -0.4254953356297604 -0.4594300442249028 0 0.2355270564007275 0 
-0.03813855556505558 -0.08718424514128721 -1.387778780781446e-17 -0.06310303556737551 0.5816763384748952 -0.07156413264438724 -0.08514790787965368 
0 -0.003224541918966695 0 0 -0.09337599879745247 0.1385114591907705 -0.04059595708114914 
-0.146497824011392 -0.01245092946245089 -0.03856898521127921 -0.06954334890566846 0 -0.0823869628502112 0.3827225270188889 
0 -0.07342610858424632 -0.5118821112989722 -0.2433021899436192 0.7255053565772694 0 -0.04027416805762054 
-0.05195709618583334 -0.06104964380361588 0.2341841481582352 -0.0423100099135067 -0.229466615297338 0.2098781041704172 -0.142161328367751 
-0.1479141657597196 -0.01462791516840295 -0.04140465791106554 0.07683606909183759 -0.1578013831878331 -0.1101491882589277 0.3231854612887275 
0.2153945154558961 -0.04914186598134668 -0.007270422177383147 -0.0145194766400663 -0.0864836544897397 -0.1852846784678998 0.1584605213245633 
-0.05828353057522005 -0.03997035397146058 0.4624997680414476 0.2048378920369139 0 -0.4214376403732586 -0.02554363666706834 
-0.1128589937112503 -0.3277024032677056 -0.1711443805692248 -0.08806964774832324 -6.938893903907228e-18 0.8574258120388077 -0.1396288597144014 
0 0 0 0 -0.04010212639421892 -0.0381401281958615 0 
0 -0.09823325493373265 0 -0.09197899510968188 0 0.2424080435060971 0 
0 -0.120314715928957 -0.06665171837982067 -0.07297371638960083 -0.39040026804672 -0.3002796584079763 0.6923540852200802 
-0.002809576076681157 0.08647058429661736 -0.09509094088229741 -0.3376476008608674 0.1503471733589722 -0.2465697361309027 0.2430277707577226 
-0.003638465542228504 -0.04210680189904786 0 8.673617379884035e-19 -0.01855457405156786 -0.1299866080265044 0.1264766001619437 
-0.05773586203418191 -0.05940054937832127 0 0 -0.05726853813856558 -0.0390390668576563 0.09742641097957841 
-0.1356771460713065 0 -0.00727042217738314 0 -0.08648365448973971 3.469446951953614e-18 0.1584605213245633 
-0.09690322106014407 -0.002769854597705164 0 0 1.387778780781446e-17 0.2679581335941009 -0.2567299548459485 
-0.03422199695460969 -0.04210680189904786 0 -0.007880842751798381 -0.1966581526977802 -0.0577088287321151 0.4931984938814528 
-0.1356771460713065 0 -0.00727042217738314 0 -0.08648365448973971 3.469446951953614e-18 0.1584605213245633 
0.5764063870094985 -0.2667482962761966 -0.08933386601257387 -0.0243970895214368 -0.008620170639898837 0 -0.1560005573752893 
-0.1426618748779401 -0.01245092946245088 -0.1197086673956045 -0.1078581468514299 -0.02670569607751861 -0.05684113143727727 0.2363949433092941 
0 -0.1291079929131649 -0.3047052976314594 -0.1300990107955873 0 0.646432444795014 -0.003179858119661032 
-0.2797296229075055 0.1859224749502659 -0.6506422023003681 -0.01942989910090324 0.5208687192540818 -0.2081523318689787 0 
0 -0.003224541918966702 -0.07269191619534877 0 -0.09337599879745247 0.01639202625949936 0.09665327934187755 
0 1.040834085586084e-17 0 -1.734723475976807e-17 -0.3293214326359752 0.3037024215388582 0 
6.938893903907228e-18 -0.03732113953260213 0 -0.03634464620607632 -0.01053648756754326 -0.02607831474581035 -0.1153336134017022 
-0.5680180782844794 -0.01162232032574243 0.3748786431542382 0.2910216689897861 0.1352241986574892 -0.218900192549432 -0.05721415476716296 
2.775557561562891e-17 -0.05734553618123415 0.326754858600411 0.2034348678605117 -0.3683306837696028 -1.626303258728257e-18 -0.08642504479274438 
-0.8888579116883915 0.08262419647139511 -0.2849179183744771 -0.08550445865822554 -0.3593634224177348 0.6830022737947185 0.1244507719065436 
0 -0.07091162318470237 0 0 -0.01767394016130937 0.1692574904935215 -0.06202908925396074 
-0.1469421206435437 -0.06415332402973706 0.1375373419886946 0.1671849574691816 -0.1288284454697529 -0.1129526197399809 -0.05568834300905168 
-0.1543081110419705 -0.003106663676991643 -0.06377862432674876 -0.0107267256488002 -0.1469410545120962 0.361158457750491 -0.2526027571890674 
-0.07345764315635789 -0.01462791516840296 -0.1877799042565584 -0.08167711215022899 -0.2064304996009063 -0.1925361511091389 0.3934661904145826 
0.2515902056066374 -0.1928832433743214 0.04764091682650026 -0.1561454876858697 -0.1743152774108622 0.07651091028654361 0.06533547834719736 
-0.1429994863908629 0 -0.2048261399490595 -0.01596751977348374 0 0 0.2899214695570603 
-0.5979127221265036 -0.4152605765019303 1.838221092087003 -0.1553029664519078 -0.2050897630635819 -0.4314676302632481 -0.09680452092689873 
-0.1469421206435437 -0.06415332402973706 0.1375373419886946 0.1671849574691816 -0.1288284454697529 -0.1129526197399809 -0.05568834300905168 
-0.003235621137704799 0 -0.09764213740582213 -0.09895716686918984 -0.2460671822610531 -0.181905516644917 0.4819303888350873 
-0.01395989942485196 0.03495152189602713 -0.08255920066545848 -0.02518593744986921 -0.1056582067620845 0 -0.01933822016113209 
-0.03738385326884234 -0.04210680189904786 0.1175792995160442 0.1237882359714946 -0.0452602701290865 -0.2668565524275843 0.1932575033153186 
0.5855100524128218 -0.05211348538664528 0.188040626366089 0.007092877605824863 0.3084920853849791 -0.664793654750832 -0.3875410791591692 
-0.2609195058048808 -0.01090968728935077 0 0 0 -0.3002796584079762 -0.01437319937060853 
-0.2088486515441704 -0.06125378398456204 -0.02615554290241547 -0.04706141932084712 0.1722468893446446 0 0.02600507034249653 
-0.07001327350174646 0.03454965268494657 0.1045532515707047 0.09025791910817685 -0.2142301207322533 -0.4733003220833738 0.1490208993767701 
-0.03374538772661383 0 -0.1197086673956045 -0.03831479794576142 -0.02670569607751861 -0.05684113143727727 0.06678090315337484 
-0.2604544821387323 0 0 0 0 0 0 
-0.03813855556505558 -0.08718424514128721 -1.387778780781446e-17 -0.06310303556737551 0.5816763384748952 -0.07156413264438724 -0.08514790787965368 
-0.2797296229075055 0.1782014049238218 -0.1169393226955263 -0.1207113212393307 -0.2354944419489996 0.2424080435060971 0 
0.1974132384664325 -0.2761059945465403 0.2240893896926687 0.4520497191539085 -0.08509393005962931 -0.1528514874682486 -0.1788314609434042 
-0.2105358898099393 -0.2497889118687113 1.021201198402494 -0.8593722358300686 -0.4196246305247627 0.2927882487396565 -0.1171318840433503 
-0.1630909291453169 -0.6046640881478091 0.01773535811941115 -0.09656238553076134 -0.2284983287370554 0.5764926203221497 -0.06088963478963762 
0 -0.1258042266657167 0.1060627659312142 0.2384978684238105 -0.04158064380595912 -0.1730724130620412 0 
-0.01657007604100188 0.1829620490658777 -0.08255920066545848 -0.02518593744986921 -0.02434026716955539 0 -0.0193382201611321 
-0.2088486515441704 -0.001853234606240833 -0.02615554290241547 -0.04706141932084712 0.1722468893446446 0 -0.003337975461445623 
0 1.734723475976807e-18 0 -0.040594376668366 0.2868653121651148 -0.0593129051757694 0.0184915577555749 
0.02350299332150627 -0.07448891577718676 -0.1925446454132368 -0.1396669363640703 -0.03608677624718108 -0.2017386592721345 -0.2529079610841787 
-0.008444925564159824 0.0611754551932033 0.04611704737786452 0.01779975281729663 -0.1451754083371832 -0.01048420127929527 -0.04567282499206674 
-0.1826888526974691 0.07039108922734941 -0.06106203623103591 -0.006327932576163646 0.3310256367498302 -0.2015402511816212 0 
-0.003638465542228504 -0.04210680189904786 0 8.673617379884035e-19 -0.01855457405156786 -0.1299866080265044 0.1264766001619437 
-0.05828353057522003 -0.2023056193658394 -0.0540700031344424 0.08171874606090383 0.4193874281390755 -0.1610331229618901 -0.09506953071795475 
0.6199951038403823 -0.02511440220811779 0 0 -0.3095781748649934 -0.1656419935491905 -0.03152825845169371 
0 0.1750488611287281 -0.1405720842254407 0.3105775777337702 0 -0.4945635667404396 0 
0 -0.1258042266657167 0.1060627659312142 0.2384978684238105 -0.04158064380595912 -0.1730724130620412 0 
0.1918074075730471 -0.1304206658805008 -0.08044852529696839 -0.150181141837042 0.206360182144971 -0.2491278271416212 -0.2483440324111024 
-0.2631714550896029 -0.0897592308421916 0.3119045176414461 0.196677763518088 -0.2731517646331221 0.4707979673090763 -0.2414254987743567 
-0.2334868821103786 -0.001980965952905288 0.1509832679191642 0.1134402655822712 -0.05905297490944533 -0.1630379565783465 -0.01887083268656849 
-0.09073593481216868 -0.05940054937832129 -0.3393282653544916 -0.04059437666836599 -0.4331376392597162 -0.1929835179611739 0.7057458139948762 
0 -0.05607114174025944 0 -0.01847965645296174 0 0.2751318436823311 0 
-0.003235621137704799 0 -0.03908093803932027 0 -0.2256931214645311 -0.1032765361035348 0.3138888371077754 
-0.05806560113986581 -0.1554271049441029 -0.3259614580305147 -0.1127730510051795 0.1349146000495144 0.274676097603436 -0.2988309631924841 
0 -0.003224541918966695 0 0 -0.09337599879745247 0.1385114591907705 -0.04059595708114914 
-0.2468368245498949 0 -0.1264629346695303 0 0 0.4966213589707182 -0.01493723189556769 
-1.734723475976807e-18 -0.07091162318470239 -0.05645793345928859 0 -0.01767394016130937 0.2100961681289641 -0.06202908925396073 
-0.3125155471389012 -0.06594059248251424 0 -0.001843946727569243 -0.1870557291095155 -0.04126947638746783 0.6404805135513164 
0 -0.1258042266657167 -0.07932017379151776 0.4877162194114257 -0.03901934046616142 -0.1730724130620412 0 
0 0 -0.0231781394418374 -0.05230801583262185 -1.734723475976807e-18 -0.05931290517576941 0.09710935105286106 
-0.04272138607357345 -0.1332194930137869 0.4434168121667609 0.3049761737812308 -0.229466615297338 -0.3591685523381693 -0.1964210714084307 
-1.734723475976807e-18 -0.07091162318470239 -0.05645793345928859 0 -0.01767394016130937 0.2100961681289641 -0.06202908925396073 
0 0 -0.0231781394418374 -0.05230801583262185 -1.734723475976807e-18 -0.05931290517576941 0.09710935105286106 
0.3510716615272026 -0.04914186598134668 0 -0.0145194766400663 0 -0.1852846784678997 0 
0 0 -0.05645793345928859 0 0 0.04083867763544251 0 
-0.1896396092738669 0.07837004227383071 0.235766454079962 -0.05527160332115649 -0.4560253731162321 0.3796961445103075 -0.2413993238927687 
0 -0.02927569383060773 0 0 0 0 0 
-0.03510807539194179 -0.08222246701322637 0 -0.0837195243078481 0.3685664577831519 0 -0.03248042438724178 
-0.1570888115001267 -0.02927569383060772 0.5507278251679637 -0.4339419207980063 -0.01613100603884561 -0.4222385510669098 0.2307496345716564 
-0.03058353141238117 0 0 -0.007880842751798381 -0.1886400662137556 -0.05770882873211511 0.378058955497841 
0 0 0 0 -0.01053648756754326 -0.1299866080265044 0.0113370617783318 
0 0.5948647502326687 0 -0.2553071885850559 0 -0.4945635667404396 0 
-0.1356771460713065 0 -0.00727042217738314 0 -0.08648365448973971 3.469446951953614e-18 0.1584605213245633 
-0.03058353141238117 -0.00310666367699164 -0.05353497163997079 -0.01650805238879748 -0.3329633853771251 0.1904198513160029 0.189141941612875 
-0.1469421206435438 -0.1623865789634698 -0.2879579936410656 -0.3842240818654029 -0.1288284454697529 0.3649824801668436 -0.05568834300905168 
-0.2498301076184832 -0.03329634588855106 0.1289453169646508 -0.08414091265620566 -0.02670569607751861 -0.06404437569002878 0.2649521581207769 
0 0 0 -0.040594376668366 0 -0.05931290517576941 0.09710935105286106 
0 0.1065554696363839 0 -0.05016180002607231 -0.1180189090188852 0 0 
-0.5112446522727088 0.2381932244040168 -0.2046264954719925 -0.01901902783685246 -0.2985055604219942 -0.01037256887365127 0.1290760716589522 
-0.1337306585751205 -0.02667347180252747 -0.08255920066545851 -0.06262611530130642 0.1349146000495146 -0.3046187164934835 -0.02716377645096795 
0 -0.02927569383060773 0 0 0 0 0 
0.981433427450294 -0.1186391493243815 -0.01720396541650162 -0.09760733380854913 -0.6639324993913387 -0.3136274277792654 -0.5227444194793466 
-0.03587630629629231 -0.02518780527565235 -0.1057373401072959 -0.06578031411823518 0.0594270694316151 -0.2346586602927501 -0.1820323722214066 
-0.5095958745576947 -0.6078856222310609 -0.6062986747410326 -0.4966421168600834 -0.3787029826542783 -0.4918262463004994 -0.3816832201989651 
