solver_type L2R_L2LOSS_SVC_DUAL
nr_class 7
label 1 2 3 4 5 6 7
nr_feature 236
bias 1
w
-0.2874195924289381 0.1571740390317831 -0.04461445044021236 -0.03913587825053799 -0.09770755344160144 -0.1840389401439263 0.1515885897852037 
0.04888769361333155 -0.1193294671240438 -0.08625499862161722 -0.1979788572211696 -0.006575426540099839 0.09813313176323729 -0.0286492668750421 
0.018168375876657 0.09704004504261275 -0.03863289323581487 0.04886460562131786 -0.5429308138554695 1.387778780781446e-17 -0.07494521123321062 
-0.5564130147507043 1.562418641598019 -0.269787315325924 -0.1479414049077385 -0.1627936439896628 -0.954159977536349 -0.1988230929623333 
0.2838996467261998 -0.204205143426565 -0.1146131165693759 0 -0.02192517443817118 0 -1.734723475976807e-18 
-0.1415310365919137 -0.02722010041609043 -0.05036478410028686 -0.01167802104634518 0 -0.0946001652731758 0.3966588713257795 
0 0 -0.05445823503708021 -0.05215388118983828 -0.07864712868091257 0.3218796817946555 0 
-0.06844577512164592 0 0 0 -0.07458523210240463 -0.05207013434322212 0.08295772710168603 
0 -0.02483954522380611 0 -0.02785123186364619 -0.04633761435617789 -0.1029949964752208 0.112030621332501 
-0.007842839662968277 -0.04979848815789743 0 0 0 -0.1490805858442359 0.1351990894333805 
-0.03496657300587888 -0.07157867606406278 -0.1453715051789929 0 0 -0.1917365148350403 0.3157160955350949 
-0.154338022410775 -0.08865525546017626 -0.2503103055845844 -0.006127117549254459 0 0.5667671285841754 -0.05093277771018744 
0 0 -0.01853186306150174 -0.03913587825053799 -3.469446951953614e-18 -0.05023776502573468 0.06275922026282715 
-0.004847483319829688 0 0 0 -0.07224228090363481 0.1367831202351807 -0.02864926687504208 
-0.1855429250887494 0.00664943395257549 -0.1807648746776175 -0.2407947786639757 0.2576294232879557 0.242053943138919 -0.08774854384375672 
-0.004847483319829688 0 0 0 0 0.01511270316454009 -0.02864926687504209 
-0.1094334923329278 0.2530197607597228 -0.1877545332270973 0.2248444087105 -0.05051769049850815 0.02245784812110646 -0.0353992307841686 
-0.09799764309051906 -0.1617297117916295 0.07366238732921483 0.1705427297133828 -0.1447142943500435 0.1203328331379604 -0.1674708924965143 
-0.1603224475257725 -0.1118315019695043 -0.5460328874990754 -0.5628244988283545 -0.1733967804211541 0.5632837216297085 0.2255775548945947 
-0.004847483319829688 -1.734723475976807e-18 -0.06916856167440842 0 -0.07224228090363481 0.00469761625197318 0.1160218255158615 
0 -0.02483954522380611 0 -0.02785123186364619 -0.04633761435617789 -0.1029949964752208 0.112030621332501 
0.2222431191589086 -0.09455301681041228 0.1430951300813347 -0.3367179264655305 0.3911340073647572 -0.298654366222402 -0.1575731705799204 
-0.02138788446518474 3.469446951953614e-18 -0.08739736837137907 -0.06969399130003923 -0.2237224081004765 -0.160318343395177 0.2093731717343459 
-0.2094926793169928 0 0 -0.01852622475039473 0.1487554609064703 0 -0.005276522778397442 
-0.1175130348569254 -0.1029961528406675 -0.2461897085351186 0.09943556044196519 -0.1733967804211541 -0.3104567474636576 0.1281242725174468 
-0.6702931182829597 -0.07168548498548009 -0.04916867416213905 -0.02129618761843719 0.7320253021459994 -0.1397651148516015 -0.3601796746630844 
-0.1806954417689196 -0.08300898545966494 0.00135108154655314 0.02868146727439355 0.4351269348317186 -0.2440807650189327 -0.05909927696871468 
-0.2465907956833845 0.3096307934495108 0.02208869090873213 -0.326467150337079 0.1285446528748078 0.006350838817621983 -0.1244972191318005 
0.3255292578006609 -0.1071766567450176 -0.03655276166738639 -0.07802436043906623 0.07204843513356418 -0.1552197195654124 -0.05376010202005509 
0 -0.02652088144823532 0 0 0.113277541184622 -0.1333905289434612 -0.125451427204685 
-0.2682367131398558 -0.03334644569231595 0.2583768017224802 0.1701128523021732 -0.1194231484669338 -0.2539071204529534 -0.1156290249631464 
0 0.1544986440132391 0.1879814782485525 0.1437942657920042 0 -0.3030030902300792 0 
-0.1410018566764769 0 -0.2099558877296158 -0.01927653590220041 0 0 0.3128766850852923 
0 -0.02897332480586756 -0.06916856167440842 0 0 -0.1320855039832074 0.1446710923909036 
-0.05865432471277689 -0.3756675751405145 -0.3012839884950689 -0.2323824185583709 -0.06421913493994193 0.88754549593529 -0.3098581198390105 
-0.3458301546498782 0.7776756487383831 0 -0.1350006211750745 -0.3425998619672463 -6.938893903907228e-18 -0.09588509901026294 
-0.06844577512164592 0 0 0 -0.07458523210240463 -0.05207013434322212 0.08295772710168603 
0 -0.02483954522380611 0 -0.02785123186364619 -0.04633761435617789 -0.1029949964752208 0.112030621332501 
3.469446951953614e-18 0 -0.1714540925577036 1.734723475976807e-18 -0.06292107050787739 -0.3882164704861496 0.2113422208840495 
-0.2070134695419297 -0.301050705343407 -0.1111843280487323 -0.1563507287101957 -0.1674200361293035 0.1844426185090548 0.2531810366523367 
-0.3099230733390539 -0.02652088144823534 -0.2244562031746546 -0.03778785184007956 0.1433111126263344 0.2511422122514341 -0.04766163905647761 
-0.03167676118345159 0 0 -0.005321663871020472 -0.2463232532921757 -0.002937898246074769 0.3426071894281826 
-3.469446951953614e-18 0 -0.1983562613436013 0 0 0.3110209768293771 -0.07763417447633753 
-0.1993412223493796 0.5129566482200789 -0.1036947990539919 -0.2041286147226858 0 -0.004724620707826682 -0.0474010992575721 
0.310328386109429 -0.03067421166386759 -0.0862549986216172 -0.1012988030263372 -0.006575426540099846 -0.1016265288094139 0 
-0.197141210616642 -0.4080936860509664 0.3245504343594141 -0.1249426225559532 -0.1423915875601956 0.5151102515680775 -0.05909890323009415 
-0.08206968934481051 0 -0.01747502527698758 0 0 0 0 
-0.06074896836559621 0.4356832078560502 0 -0.1350006211750746 -0.1353263033560615 -0.2056621379903403 -0.09588509901026296 
0.310328386109429 -0.03067421166386759 -0.0862549986216172 -0.1012988030263372 -0.006575426540099846 -0.1016265288094139 0 
-0.0002267676306097061 -0.1372822134942938 -0.1453715051789929 -0.01917688075882259 -8.673617379884035e-19 -0.1183748670752932 0.3880394336961047 
-0.1806954417689196 -0.418548601893976 0.3845750609940344 0.3643032696616036 0.3990354149548094 -0.4961690911473054 -0.1336404202955379 
0 0 0 0 -0.06292107050787739 0.192621553123007 -0.1653676517777513 
-0.1939304352242436 -0.1995755146472687 -0.897119190363272 0.9194996409436689 -0.04485543142583451 0.2316578367727619 -0.1389312412034047 
-0.06581269392646939 -0.144647052862879 -0.02329291108832302 1.734723475976807e-18 0 0.1749837378766441 -0.05228325853393045 
-0.3402752727466011 -0.0337074185462973 -0.2600211376486509 -0.180857433291087 0 1.387778780781446e-17 0.148327579768561 
0 0 -0.1453715051789929 0 0 -0.1183748670752932 0.2292359716399374 
0.3567746968379898 -0.04865536211926355 0 -0.0199073489510746 0 -0.1994749524418247 -0.001677558580550338 
-0.05613071753921232 0.3932932885831396 -0.01049813091644858 0 0 -0.1970278374129882 -0.05228325853393045 
-0.1993412223493796 0.2479013625133226 0.2048147135434427 0.075891334461101 -0.08790461886672625 -0.3036922931707298 -0.0474010992575721 
-0.03496657300587888 -0.07157867606406278 0 0 0 0 0.08648012389515759 
0 -0.04230451234448215 0.4014702144793391 -0.0418767255195555 0 -0.4076281200503388 -0.02601055179579073 
0 0 0 0 -0.07224228090363481 0.1216704170706405 0 
-0.2539568454810277 0.2400849573438942 -0.1255508074013497 0.05263686286099686 0.005567487706390871 0.1181362596910286 -0.1586691707240524 
-0.2869896912804631 -0.2332255538614569 -0.1263007197911011 -0.3085994734198217 0.05715492286313523 -0.07509887471001844 0.02489355970958656 
-0.1049014425454977 0.007839313232726314 -0.01747122656173029 -0.1990352375048014 -0.02320830550546245 0.2585095554662487 -0.08803402999062257 
-0.004847483319829688 0 0 0 -0.07224228090363481 0.1367831202351807 -0.02864926687504208 
0 -0.02897332480586756 -0.06916856167440842 0 0 -0.1320855039832074 0.1446710923909036 
-0.03940715842859187 -0.09959411985460259 0 -0.06987258533361886 0.1658857345071885 -0.0688790177551597 -0.06551631742703667 
-0.06206432169738271 0.3150559809727965 -0.3796102526770326 0.2873530043767441 0.113583181434364 -0.3221147772020316 -0.03686705055199451 
-0.04906725973527949 0 -0.06310751787233651 -0.02412741112499074 0 -0.07434767297651004 0.04800469238674365 
-0.0775237119218526 0 0 0 0.3167013357435787 0 -0.1159818064175032 
0 0 0 0 0 -0.1490805858442359 0 
-0.02077455425462263 0.06824832659333528 0.04848835612334529 0.02525107492132731 -0.1512897208901433 0.01833537653283529 -0.01297499857106978 
0 0 -0.01853186306150174 -0.03913587825053799 -3.469446951953614e-18 -0.05023776502573468 0.06275922026282715 
-0.06844577512164592 0 0 0 -0.07458523210240463 -0.05207013434322212 0.08295772710168603 
0 0 -0.06916856167440842 0 0 -0.1320855039832074 0.1446710923909036 
-0.6572298207390659 -0.4263570694967555 -0.7469394089700164 1.87248091472035 -0.08361189623085855 -0.512858959880266 -0.1170714216602723 
-0.04895704430043932 -0.02741594343295264 0.0565995414760887 0.218196016688942 -0.04523361947902989 -0.1029949964752209 0.04210340649413604 
-0.09930622251006732 -0.1276962996639287 -0.03017167986790158 -0.0571722008231034 0.02574578051051166 0.2711942026899208 -0.3170790507964265 
-0.01129445460555459 -0.08431065784189151 0.1238770259538367 0.1711318270153471 -0.2226013849560483 0 -6.938893903907228e-18 
-0.1728481811209469 -0.04377013598920648 0.122876925513296 0.1516832024545951 3.469446951953614e-18 -0.3689562015998221 0.1092250715492527 
-0.146218426648153 -3.469446951953614e-18 -0.2243917638725896 -0.06495229866137771 0 0.4905098772578589 -0.0930855965979402 
-0.1993412223493796 0.4526930232997728 -0.1036947990539919 -0.2041286147226858 0 -0.004724620707826675 0.007862785272161037 
0 -0.1492638380273161 -0.01747502527698759 -0.02337718188896338 -0.2699614221746134 -0.3318300684220536 0.6063311221494692 
0.08707621718590515 -0.08603864697481829 -0.1011246014513572 -0.1740520209880802 -0.5309824691041253 0.3096650085196135 -0.2503348987754981 
-0.03496657300587888 0 0 0 0 0 0 
-0.03167676118345159 0 0 -0.005321663871020472 -0.2463232532921757 -0.002937898246074769 0.3426071894281826 
-0.3122132002028036 -0.04584230272611681 0.03975037207004355 0.1600648164724906 -0.1122225642213882 -0.1761102198210705 -0.05457342668631035 
-0.1099049340451896 -0.3512694708374655 -0.1836237130768336 -0.1037504128656119 -0.03971276500241498 0.8132537671056851 -0.1318170830890316 
-0.004847483319829688 0 0 0 -0.07224228090363481 0.1367831202351807 -0.02864926687504208 
-0.1436384840126853 -0.1837363001097981 2.775557561562891e-17 -0.1221494535662759 -0.00314738851588063 0.4750020664456509 -0.07358663795007583 
0.1556430385663667 -0.2029819766121224 0.1296348265783992 -0.05546491816700545 -0.1248067729183493 -0.2681294682822125 0.1291863660038414 
0 -0.08431065784189151 0.1238770259538367 0.035300099495295 0 0 0 
0.310328386109429 -0.03067421166386759 -0.0862549986216172 -0.1012988030263372 -0.006575426540099846 -0.1016265288094139 0 
-0.05613071753921232 0.2757610225979725 -0.07966669259085699 -1.734723475976807e-18 -2.602085213965211e-18 -0.3291133413961957 0.09238783385697305 
0 0 0.218659124876122 -0.2611738784907762 -0.03065357357784574 0 0 
-0.02750464658862053 -0.1280807938310981 -0.3796102526770326 0.7467629022678886 -0.2226013849560483 -0.05957345157263919 -1.734723475976807e-18 
0.2887347340796329 -0.5170862314554623 0.1730835059576842 -0.01784839851048655 -0.1931180993860035 -0.1669447305828247 0.2084850214259007 
-0.03549900191395327 0.218714321201025 -0.4023150660310687 -0.211834483955661 -0.1032827775061625 0.1578416831784837 -0.04659925703881398 
-0.380330830908894 0.05328901657176519 0.4969685600252537 0.2266175157494194 -0.09476692830711929 -0.3226104792318534 -0.2008150460829353 
-0.05613071753921232 0.3932932885831396 -0.01049813091644858 0 0 -0.1970278374129882 -0.05228325853393045 
-0.2850811862842823 0.3486418748349078 0 5.421010862427522e-18 -0.3053301095907738 0 0 
-0.1410018566764769 -0.02897332480586756 -0.2791244494040245 -0.0192765359022004 1.734723475976807e-18 -0.1320855039832074 0.4575477774761957 
-0.1394204139140689 0 -0.02608258737871064 0 0 0 0.1385808024916908 
0 -0.04445103317807163 -0.08779108744145611 -0.09100566491378213 0 1.040834085586084e-17 0 
-0.8911369754902457 0.8786614022712979 -0.1519358416595357 0.1678850057550546 -0.007012156431624418 -9.540979117872439e-18 0 
0 0 0 0 0 -0.1490805858442359 0 
-0.06228501037476296 -0.07143478582587907 -0.01026946084367368 0.2707201825298612 0.6229545765058409 -0.3226104792318533 -0.10528991204599 
-0.0659351505892407 -0.418548601893976 -0.0004708400465750304 0.2831162066424145 -0.1064359740201349 -0.5905735386032887 0.2257524623046777 
-0.1034123481275248 -0.0620330138116068 -0.1913257089191131 -0.03913587825053797 -0.1733967804211541 -0.2511898160725298 0.5641379820398587 
0.3567746968379898 -0.04865536211926355 0 -0.0199073489510746 0 -0.1994749524418247 -0.001677558580550338 
0 -0.08855894117929944 0 0 0 0 0 
0 -0.001769388891300781 -0.1727938458576113 -1.734723475976807e-18 -0.09881154831874944 -0.2330309679217325 0.3916300596517244 
-0.2565932091762677 -0.08865525546017625 -0.1512988124352043 -0.148133518187875 -0.1837324880909248 0.4977803169390658 0 
-0.0775237119218526 0 0 0 0.3167013357435787 0 -0.1159818064175032 
0 0 -0.06916856167440842 0 0 -0.1320855039832074 0.1446710923909036 
0 -0.06026362492030602 0 0 0 0 0.05526388452973314 
-0.06581269392646939 0.2266838026427235 -0.4317362212129439 -0.48797458982595 -0.09805655097958903 0.2998920120671027 -0.1703089561512506 
0 -0.04230451234448215 0.4014702144793391 -0.0418767255195555 0 -0.4076281200503388 -0.02601055179579073 
0.8566744756857545 0.01341703244736897 0.05767466726310961 0.002592864826779225 -0.4606833374735127 -0.3723511875387363 -0.3497778583684655 
0 0 -0.06916856167440842 0 0 -0.1320855039832074 0.1446710923909036 
-0.01882238728609211 -0.01412107263547562 6.938893903907228e-18 0 0 0.07391365810196411 -0.02847290950611212 
-0.007842839662968261 -0.04979848815789743 0 0 0 0 0.1351990894333805 
0 -0.02897332480586756 0 0 0 0 0 
-0.06844577512164592 -0.06026362492030602 0 0 -0.07458523210240461 -0.05207013434322211 0.1382216116314191 
0.1160365784836681 -0.1071766567450176 -0.03655276166738639 -0.09655058518946094 0.2208038960400345 -0.1552197195654124 -0.05903662479845255 
-0.01273177549790161 0 -0.06792742674991299 -0.03246618796905906 0.00958849570866958 0 -0.02168520541920857 
-0.05294778406529728 0 -1.734723475976807e-17 -1.734723475976807e-18 -0.03971276500241497 0.2507622215152638 -0.2566862723675756 
0.4415147249015142 0.3162231309291686 -0.4983554711642859 -0.239588996335463 -0.04664277388395065 0 -0.1745969126261135 
-0.1024197009004928 -0.02722010041609043 0 -0.01167802104634518 0 0 0.105423239301128 
-0.1993412223493796 0.429947662760414 -0.1946962027430235 0.2743676285166213 -0.04079487544252769 -0.2378586648261824 -0.0474010992575721 
-0.1138818682006019 -0.05902520768943136 -0.08645274390568682 0.02201504800578081 0.4290491838448857 -0.4782056844593523 -0.1209981660169917 
-0.1024197009004928 -0.02722010041609043 0 -0.01167802104634518 0 0 0.105423239301128 
-0.1294257175796255 1.169772981727098 -0.2598102489657512 -0.1334701330999958 -0.1146594802523098 -0.2056621379903403 -0.109817719773712 
-0.02401136663507232 0.09082196183766188 0.03850477560409741 -0.03751586303763158 0.1049048185007591 -0.08899439968734574 -0.08936961317806891 
0 0 0 -0.09100566491378213 0 0 0 
-0.1151754340133061 -3.469446951953614e-18 1.155866819439709 -0.2611738784907762 -0.03065357357784574 -0.7670140763804628 -0.05038032653700892 
-0.03295486527328038 -0.09847661957545001 1.734723475976807e-18 -0.0431149569849401 0.5047170984453303 -0.1333905289434612 -0.125451427204685 
-0.004847483319829688 0 0 0 -0.07224228090363481 0.1367831202351807 -0.02864926687504208 
-0.1415310365919137 -0.02722010041609043 -0.05036478410028686 -0.01167802104634518 0 -0.0946001652731758 0.3966588713257795 
0 -0.07143478582587909 -0.5321542161222675 -0.2357404152076616 0.5587767817122096 0 -0.02427686509517684 
-0.05282275543728164 -0.116640806666044 0.1763902360068645 -0.04744574718538318 -0.2226013849560483 0.2756355319861374 -0.1366146956214735 
-0.1507148685196235 -0.02483954522380611 0 0.1079804956564059 -0.2689389993122262 -0.1029949964752208 0.250611423824192 
0.2173542829239209 -0.04865536211926355 -0.02608258737871066 -0.0199073489510746 0 -0.1994749524418248 0.1369032439111404 
-0.04895704430043933 -0.04488091055362869 0.4580697559554275 0.2041705230330325 0 -0.4076281200503387 -0.03683848966544101 
0 0 0 0 0 0.07391365810196411 -0.02847290950611212 
0 0.00664943395257549 0 0 -0.09805655097958901 -0.2056621379903403 0 
0 -0.08841595705955808 0 -0.1497268996306032 0 0.246154919081888 0 
0 -0.1492638380273161 -0.01747502527698759 -0.02337718188896338 -0.2699614221746134 -0.3318300684220536 0.6063311221494692 
0.01102145800101137 0.05637747386565202 0.06264764310669331 -0.2087897138963068 -0.1463023768366492 -0.01869389793200346 0.3086583430847921 
-0.007842839662968277 -0.04979848815789743 0 0 0 -0.1490805858442359 0.1351990894333805 
-0.06844577512164592 -0.06026362492030602 0 0 -0.07458523210240461 -0.05207013434322211 0.1382216116314191 
-0.1394204139140689 0 -0.02608258737871064 0 0 0 0.1385808024916908 
-0.1008920766309027 -0.01412107263547563 6.938893903907228e-18 0 -0.06292107050787739 0.2665352112249713 -0.1938405612838636 
-0.03951960084641984 -0.04979848815789743 0 -0.005321663871020472 -0.2463232532921757 -0.002937898246074767 0.477806278861563 
-0.1394204139140689 0 -0.02608258737871064 0 0 0 0.1385808024916908 
0.5709404424811396 -0.2972341322129485 -0.1643648358598497 -0.0397503624816879 -0.03003984461122991 0 -0.1540169898223788 
-0.1514869606357723 -0.02722010041609043 -0.06310751787233651 -0.03580543217133594 0 -0.07434767297651004 0.1534279316878716 
0 -0.06341902322441306 -0.3311503535996133 -0.1571585119852457 0 0.4830806458125292 0 
-0.2850811862842821 0.1716872077730883 -0.5258545876518962 -1.517883041479706e-17 0.302748106249075 -0.2442324487495491 0 
0 0 -0.04137551530287987 -0.06969399130003924 0 -0.1053511683565605 0.1232495441332108 
0 -0.01459571584393237 0 0 -0.04101082943447953 0.125824008089724 -0.08036374914766427 
-7.806255641895632e-18 -0.0469008222640474 -0.02359711518934397 -0.09778980364146153 0 0.05905602575861663 -0.132855883149527 
-0.5689426461258845 0.02472585757736677 0.2028696114639471 0.156412001377954 0.1722144154884616 -0.1623560474470931 0.08820913749356295 
1.734723475976807e-18 -0.1029961528406676 0.309608596677562 0.1626988498174939 -0.3311591385892122 0 -0.07494521123321062 
-0.8805602776962804 0.06617635452360518 -0.2232330014226682 -0.0205064415565246 -0.02281015532172253 0.5180848652272085 0.007390007089659879 
-0.2850811862842823 0.215774884597278 -0.0877910874414561 -0.1497268996306032 -0.3053301095907738 0.246154919081888 0 
-0.3264951340393482 -0.07157867606406278 3.469446951953614e-18 0 0 -0.07336164775974731 0.4141052123543876 
-0.1517112479406689 -0.07144333869165535 -0.03521369440696841 0.07454064041274526 -0.1500955777012858 -0.01070783747101188 -0.1013131042471963 
-0.06691180501721239 0.3150559809727965 -0.3796102526770326 0.2873530043767443 0.04134090053072919 -0.1853316569668511 -0.06551631742703665 
-0.07106588510272877 -0.02483954522380611 -0.1357672361271874 -0.06031741983270525 0.01102542807573294 -0.2078305548645919 0.3222532064063396 
0.2587092536400674 -0.1235209018518785 -0.002729803038900028 -0.129419682869387 -0.07578567969932784 -0.02788989876640946 0.03319982024243295 
-0.1410018566764769 0 -0.2099558877296158 -0.01927653590220041 0 0 0.3128766850852923 
-0.6129911694819368 -0.4488350801084003 1.889277007810132 -0.1069382579368589 -0.1879554208094214 -0.5127686933994523 -0.1386587271301193 
-0.1517112479406689 -0.07144333869165535 -0.03521369440696841 0.07454064041274526 -0.1500955777012858 -0.01070783747101188 -0.1013131042471963 
-0.02138788446518474 3.469446951953614e-18 -0.06131478099266838 -0.06969399130003925 -0.1608013375925991 -0.2038593106739479 0.3747408235120972 
-0.01273177549790161 0.02777594835543378 -0.06792742674991299 -0.03246618796905906 -0.02768125666780286 0 -0.02168520541920856 
-0.05691009939824778 -0.04979848815789743 0.131617861458337 0.05550581049225224 -1.734723475976807e-18 -0.2929900113557687 0.1832037818201242 
0.6238438962053831 0.003352206389777184 0.2076255325772524 -0.07117774739562162 -0.4516374264468958 -0.2978328824970118 -0.1570970957659516 
-0.2409549919138894 0.008897932711897941 0 0 0 -0.2400209229298799 0.1474739010218634 
-0.2094926793169928 -0.06026362492030602 0 -0.01852622475039474 0.1487554609064703 0 0.04998736175133568 
-0.05897793964095126 0.02589271972617468 -0.1068667295748955 -0.03751586303763157 0.006848267521170176 -0.4863930525127266 0.2263464823570262 
-0.2592193300831599 0 0 0 0 0 0 
-0.03295486527328038 -0.09847661957545001 1.734723475976807e-18 -0.0431149569849401 0.5047170984453303 -0.1333905289434612 -0.125451427204685 
0 -0.08392431950363777 0 0 -0.00314738851588063 0.172571463640765 -0.04493737107503368 
0.1641099594612761 -0.2839780058427249 0.2082686702854182 0.4258289436985642 -0.1130114005602347 -0.04610125677254847 -0.171459539538985 
-0.1975702702424547 -0.220367097113584 0.8710305611326102 -0.9520263509032396 -0.004328571538622868 0.3232269063400632 0.04355796088859437 
-0.15590040303541 -0.5379403414460193 0.03297699210696039 -0.08647814337657693 -0.1693570445280123 0.6011761963927142 -0.03252764661538256 
0 -0.04326590451697028 0 -0.1077988737921728 0 0.3376805300773169 0 
-0.01273177549790161 0.1652448077151188 -0.07842555766636156 -0.03246618796905906 0.00958849570866958 0 -0.02168520541920858 
-0.2094926793169928 0 0 -0.01852622475039473 0.1487554609064703 0 -0.005276522778397442 
0 0 -0.01853186306150175 -0.03913587825053798 0 -0.04000237190953951 0.06275922026282715 
-0.02680565101469733 -0.14506385466425 -0.1875773453570433 -0.1520369729822993 -0.1019332852592407 -0.168540675939738 -0.371333064792491 
-0.02077455425462263 0.06824832659333528 0.04848835612334529 0.02525107492132731 -0.1512897208901433 0.01833537653283529 -0.01297499857106978 
-0.1806954417689196 -0.08300898545966494 -0.05310715349052707 -0.02347241391544474 0.3564798061508062 0.07779891677572294 -0.05909927696871468 
-0.007842839662968277 -0.04979848815789743 0 0 0 -0.1490805858442359 0.1351990894333805 
-0.04895704430043935 -0.2047306154172532 -0.06932027659518002 0.1152122145783574 0.282937225201627 -0.1026669270427626 -0.08989493147887784 
0.6193082629925831 -0.0009331029378395123 -0.03655276166738637 -0.008151775105447363 -0.2641361312568481 -0.1552197195654124 -0.01689305146806059 
0 0.2192476837766546 -0.1519358416595357 0.3041014858745166 0 -0.5086962447112804 0 
0 -0.08300898545966492 0.1276577211870905 0.2173223647485308 -0.07144844902037344 -0.2331340441183557 0 
0.1885483864666624 -0.1069743346646545 -0.2164570293853043 -0.2213451081958485 0.1944669971665382 -0.1175265477885801 -0.2454130602405054 
-0.2711520043985239 -0.1394891415354509 0.293587836845832 0.08197225276738777 -0.1500955777012858 0.4395082552055904 -0.1013131042471964 
0 -0.08300898545966492 0.1276577211870905 0.2173223647485308 -0.07144844902037344 -0.2331340441183557 0 
0 0 -0.1453715051789929 0 0 -0.1183748670752932 0.2292359716399374 
0 -0.04326590451697028 0 -0.1077988737921728 0 0.3376805300773169 0 
-0.02138788446518474 0 -0.01993926568978848 0 -0.1608013375925991 -0.09850814231738748 0.2514912793788864 
-0.05404045313196659 -0.1337483493810464 -0.3122472906161106 -0.1487008657049364 0.08039004211845686 0.3182024710345807 -0.2431797589208915 
-0.004847483319829688 0 0 0 -0.07224228090363481 0.1367831202351807 -0.02864926687504208 
-0.2508377401672522 0 -0.1565287764247417 0 0 0.5315072076753568 -0.01807111494234468 
0 -0.08392431950363778 -0.06784827296337022 0 -0.00314738851588063 0.2547506614617259 -0.04493737107503368 
-0.3264951340393482 -0.1005520008699303 -3.469446951953614e-18 0 0 -0.07336164775974731 0.4141052123543876 
0 -0.08300898545966492 -0.09100140368903145 0.4784962432393071 -0.04079487544252769 -0.2331340441183556 0 
0 0 -0.01853186306150174 -0.03913587825053799 -3.469446951953614e-18 -0.05023776502573468 0.06275922026282715 
-0.0431407790500245 -0.1280807938310981 0.4567098391967482 0.342091565372142 -0.2226013849560483 -0.368956201599822 -0.2036516135360396 
0 -0.08392431950363778 -0.06784827296337022 0 -0.00314738851588063 0.2547506614617259 -0.04493737107503368 
0 0 -0.01853186306150174 -0.03913587825053799 -3.469446951953614e-18 -0.05023776502573468 0.06275922026282715 
0.3567746968379898 -0.04865536211926355 0 -0.0199073489510746 0 -0.1994749524418247 -0.001677558580550338 
0 0 -0.06784827296337022 0 0 0.08217919782096116 0 
-0.1794780829696133 0.07995033344647018 0.2448572017848745 -0.03755377512587976 -0.4149255257527915 0.2948463432842011 -0.3314193451328398 
0 -0.02897332480586756 0 0 0 0 0 
-0.03455967510876221 -0.1062435538071781 0 -0.06987258533361887 0.3361845663904123 0 -0.03686705055199451 
-0.156637989137881 -0.02897332480586756 0.5571956424697571 -0.423947872797947 3.469446951953614e-18 -0.4414682540103905 0.2538961639401564 
-0.03167676118345159 0 0 -0.005321663871020472 -0.2463232532921757 -0.002937898246074769 0.3426071894281826 
0 0 0 0 0 -0.1490805858442359 0 
0 0.6377962856706305 0 -0.2398104129269226 0 -0.5086962447112804 0 
-0.1394204139140689 0 -0.02608258737871064 0 0 0 0.1385808024916908 
-0.03167676118345159 0 0 -0.005321663871020472 -0.2463232532921757 -0.002937898246074769 0.3426071894281826 
-0.1517112479406689 -0.1598592957512135 -0.03521369440696841 -0.07518625921785795 -0.1500955777012858 0.2354470816108758 -0.1013131042471963 
-0.2569466462491425 -0.04230451234448215 0.131469136081974 -0.0660041366445462 0 -0.04506875062466805 0.2951586576732601 
0 0 -0.01853186306150175 -0.03913587825053798 0 -0.04000237190953951 0.06275922026282715 
0 0.1024817996804635 0 -0.009571317103055452 -0.1178275551878986 0 0 
-0.5054326114646556 0.2429527317634641 -0.265886551011878 -0.08879096291787016 -0.2199252884707248 0.1062403421955758 0.08955733215441039 
-0.141155022516612 -0.02652088144823534 -0.06792742674991298 -0.03778785184007956 0.1433111126263344 -0.2803649954239225 -0.02959052411413289 
0 -0.02897332480586756 0 0 0 0 0 
0.9600834540822865 -0.1607003287082919 0.06691405641095005 0.04032827104877709 -0.3613636722840063 -0.3726951321683537 -0.4647078396673044 
-0.03195454941130785 -3.469446951953614e-18 -0.08645928981141475 -0.07160206621959703 -0.0403445110096906 -0.1942743332601213 -0.06800525965730018 
-0.4313083771520848 -0.5530259288542281 -0.5836648888726043 -0.4868419214652648 -0.2645127571734378 -0.5980352688300188 -0.2391404943824824 
