solver_type L2R_L2LOSS_SVC_DUAL
nr_class 7
label 21 22 23 24 5 6 7
nr_feature 234
bias 1
w
-0.2661624674071347 0.238264063994782 -0.02204962318332651 -0.0134582308334593 0.01980683041309644 -0.2299823311383654 0.1417379745353992 
0.1471705145225794 -0.1510510534501945 -0.1332371371769298 -0.1578920761662968 -0.05763020001544347 0.03422488338408381 -0.04105271365740408 
-0.0251733183671825 0.04311780293147251 -0.1242969112919869 0.04001530332209136 -0.1043153495374705 6.938893903907228e-18 -0.166974281748913 
-0.8307325764565175 1.700529406573842 -0.3359989147671128 -0.2005419233743155 -0.3320926926877497 -0.926173565166884 -0.1314261231977078 
0.2359009806565373 -0.1922759735523819 -1.387778780781446e-17 0 -0.1592173955386926 0 -0.007607677887984835 
0 0 0 0 -0.03553169619199552 -0.1252117626641431 0.05913481679979157 
-0.1249647757379155 -0.1957104867323879 0.1835908166655232 -0.1560446031789459 -0.2819895544570592 0.2995542257279297 -0.2576025096778041 
0 -0.06885480236022182 -0.06400743758065659 0 -0.04330292034890786 0.7578387947869549 0 
-0.02882267259348364 0 0 0 -0.07229134205417842 -0.0821365121129924 0.1078600183456943 
0 0 0 0 0 -0.06667428549686236 0.2091208896841165 
0 -0.1003370125379038 0 -0.09035730771312961 0 0.3716319820836708 -0.04171570284913234 
0 -0.04753440978066963 0 0 -0.03553169619199552 -0.1252117626641431 0.1426567357774041 
0 -0.05488415153816498 -0.2294629992366058 -1.387778780781446e-17 -6.938893903907228e-18 -0.2083344612158166 0.4359214700553636 
-0.1909246458958763 -0.1201383845949855 -0.02763535599919166 0.1748957588701487 -0.3280237128491598 -0.2012020511584011 -0.08991832879343034 
-0.03215341542493712 0 -0.02204962318332651 -0.02454244514903348 0 -0.1072400960035766 0.08533195689067488 
0 -0.007152268221877089 0 -0.006254949179063996 -0.1530161432689262 0.1866706163695039 -0.07646464477177908 
0 -0.007152268221877092 0 0 -0.01937019424241825 0.05930998208856638 -0.04105271365740407 
-0.03662030491636258 0.4234321183019477 -0.009270817872077949 0 -0.05545034765915342 -0.1176130252067105 -0.006274402056933446 
-0.03202978160704031 -0.1914894822263017 0.06471055660582517 0.198245261894406 -0.1186944685761942 0.1011418544284542 -0.04754236439269499 
-0.1232620010706305 -0.008074953722549844 -0.05249898206814183 -0.1276763809530202 0 -0.09986683402272518 0.3469295651178191 
-0.5312834657791756 -0.1169930741069703 -0.6042030280477683 -0.722424891142422 0.3813550048778719 0.7037641170848028 0.1473218770955661 
0 -0.007152268221877087 -0.08725879693436997 -0.006254949179064 -0.1530161432689262 0.03770027312332027 0.0387874514035243 
0 0 0 0 0 -0.06667428549686236 0.2091208896841165 
-0.2122038230429945 -0.08184070925952562 -0.6939066432174856 -0.3381140559341842 0.3894890826238851 0 -0.05092996134349276 
0.35366919812773 -0.1346820224883455 0.3577188409832125 -0.3464522238948122 0.4927947799975526 -0.2703535084921778 -0.2072234258321041 
-0.08879837219718735 0 -0.01016808806756772 -0.02481255128300867 -0.1711051371021706 -0.3167132955764903 0.3402091746347392 
0.01230730754356009 -0.3316271772589551 0.1863924807715629 0.1832737139439465 -0.3315394567071939 -0.4667971494216074 0.3463890036504563 
-0.7738331058494617 6.938893903907228e-18 -1.732012970545593e-17 -0.03691051641788023 0.841892085473148 -0.2554333097160678 -0.1910344185674455 
-0.1749858206247832 -0.1508601112512846 -0.07375126946139113 -0.09362300871050455 0.3235999926961009 -0.1912747919681078 -0.03738360763597538 
-0.2443611810540925 0.2859865503203735 -0.003538050040094451 -0.4186109686760771 0.2145725988414276 0.1521161475696315 -0.3313038240619602 
0 0 0 -0.006164101837934643 0 0 0 
0 0.08319957356346673 0.1257267877518799 0.1424046084400406 -0.1367895998114887 -0.2239821514777366 -0.09634543111591951 
-0.08563689152485854 0 -0.2315437984046914 -0.01313868343321196 -0.07829722749610413 0 0.3144906836070254 
0 -0.02720123253162525 -0.08725879693436997 0 2.168404344971009e-19 -0.1489703432461838 0.1152520961753035 
-0.007745979243114948 -0.2937456044542728 -0.31328262641522 -0.1877017016554584 -0.3310780451007183 1.022400972334236 -0.1630043195878166 
-0.455377819968974 0.8345192706951816 -2.775557561562891e-17 -0.06596145442231896 -0.4678863391466269 0 -0.1018831271474808 
0 0 0 0 0.2437962196102892 0 -0.177394396951518 
-0.02882267259348364 0 0 0 -0.07229134205417842 -0.0821365121129924 0.1078600183456943 
0 0 -0.2294629992366058 -0.01108421431557417 -0.03553169619199553 -0.5471364263480281 0.192126475179945 
-0.3623865976278967 -0.3229281092924722 -0.09169411716995403 -0.1210973421906338 -0.1751240255605161 0.2168860638870918 0.4841313014044105 
-0.3429743529712932 -0.01358875336327862 -0.2532003309397428 -0.03120885062385015 0.2724083836942734 0.2599161838839591 -0.1319743879463744 
-0.02021597833676112 0 0 0 -0.2663744863881321 -0.1362973013001091 0.4755042433939556 
0 0 -0.2270388202067808 0 -0.04795963049721014 0.2296536588444865 -0.1244840394380952 
-0.1843274618114643 0.5919384552144442 -0.08855938058237757 -0.2058242476242116 0 -0.03391568647823782 -0.04889981950715142 
0.3902895030440928 -0.001693132532495057 -0.1332371371769298 -0.133826057746407 -0.03826000577302525 -0.1527404832854676 0 
-0.1529843206010871 -0.4665279038298192 0.3763764536865341 -0.1138875112399324 -0.5941720997879493 0.6692952682222404 -0.09107472182626584 
-0.1024097029658577 0 0 -0.01410835490283892 -0.02671136021695473 -3.469446951953614e-18 -6.938893903907228e-18 
-0.114487950623063 0.4500269641157968 -1.387778780781446e-17 -0.06514684233027355 -0.267720020438085 -2.602085213965211e-17 -0.1061908038334967 
0.09077396901754839 -0.01717894349876148 -0.1332371371769298 -0.133826057746407 -0.04827341611275238 0.01681918497942991 -0.2218850660552454 
-0.024558628523816 -0.1250680278295201 -0.2294629992366058 -0.1276763809530202 -0.3940642400193743 -0.2083344612158166 0.5251372569206749 
-0.1749858206247832 -0.5205603364032785 0.452248129418748 0.357332733414229 0.2658837158133275 -0.6543212895654988 -0.1312050920776365 
-0.8690127741429894 -0.4392433332468514 -1.057896022490522 1.944649461185674 -0.227278642610647 -0.4469995104651408 -0.07808410065968335 
0 0 3.469446951953614e-18 0 0 0 -0.1904809296627293 
-0.1191009778734251 -0.2260527067329416 -0.8911290502839708 1.097283342104787 -0.6616132325557 0.3245359870624289 -0.2824581339707791 
-0.09363719370700314 -0.220605814738985 -0.009270817872077949 -4.336808689942018e-18 -0.05545034765915342 0.1859555254936139 -0.006274402056933449 
-0.16850995005275 -0.05488415153816498 -0.3739247921240144 -0.3652777650221037 -0.1068057908342748 0 0.02080112443495974 
0 0 -0.2294629992366058 0 0 -0.2083344612158166 0.3234725880428828 
0.325592597060097 -0.06705911166746065 0 -0.02333102907117067 -0.04416999497774931 -0.1909545746648355 0 
-0.03662030491636258 0.4234321183019477 -0.009270817872077949 0 -0.05545034765915342 -0.1176130252067105 -0.006274402056933446 
-0.1843274618114644 0.2537185880652405 0.1851391523679327 0.1088044114018651 -0.3314521695320933 -0.2265707799844982 -0.1005299119237832 
0 0 -0.5744535566096094 -0.4558618034236318 0 0.1832953379693666 0 
0 0 0 -0.006254949179063996 -0.1336459490265078 0.1273606342809377 -0.03541193111437509 
0.07718614049840294 -0.3214589744739698 -0.02874310844085239 -0.2278203813931379 0.144467594396762 -0.02068017311643775 -0.02367878866826199 
-0.03588138871776642 0.008297670594030498 -0.02338393367738528 -0.1842153629406344 -2.081668171172169e-17 0.3091055599158822 -0.187499345822127 
0 -0.007152268221877089 0 -0.006254949179063996 -0.1530161432689262 0.1866706163695039 -0.07646464477177908 
0 -0.02720123253162525 -0.08725879693436997 0 2.168404344971009e-19 -0.1489703432461838 0.1152520961753035 
-0.1131629515914666 -0.03339012542036047 0.07850175714072466 0.210983171976791 0.03599758200056401 -0.1209691864361984 0.159731801962277 
0.3771739524137637 -0.140285527648241 -0.03206524162619499 -0.0707256860372637 -0.0007148220002368699 -0.2182221117963211 -0.1178307609510162 
-0.0907081955159416 0.3464126726573132 -0.4268934103145515 0.3100509586722778 0.4056726664868017 -0.4953104460348071 -0.007876277362856253 
-0.05288902809097886 0 -0.1241656805420728 0 0 -0.1232812140662765 0.1182104286213235 
-0.06352965062040818 0 0 0 0.2424350115220119 -0.1030797302436297 0 
-0.0907081955159416 0.339260404435436 -0.4268934103145514 0.3037960094932134 0.2526565232178757 -0.3086398296653012 -0.08434092213463545 
0.05525570262378861 0.05759545289703425 0.03359008540180444 -0.01060165036848923 -0.2565748169861218 0.03475252423857453 -0.05819763078517066 
-0.02882267259348364 0 0 0 -0.07229134205417842 -0.0821365121129924 0.1078600183456943 
0 0 -0.08725879693436997 0 0 -0.1489703432461838 0.1152520961753035 
-0.09162269613627841 -0.126719841729556 -0.256813611537191 0 -0.01001341033972716 0.8901260149534299 -0.2218850660552455 
0 0.1855347500539052 -0.1577864803743618 0.3970602951091662 -0.02730709121726053 -0.5382811238035752 0 
-0.2505205504058829 -0.1167630245974995 -0.1385477536518502 -0.1985911929601837 0.2722815003578602 0.1914528457880091 -0.3049135788140308 
-0.05195129101637556 -0.07538350151605806 0.1193147087983933 0.1229317430226678 -0.2067228327425884 -6.938893903907228e-18 0 
-0.1016334874557578 -0.06509830439522704 0.1470299266035893 0.2063755765904082 -0.07829722749610414 -0.4084424119711538 0.06612011719201266 
-0.1299943845431517 -3.469446951953614e-18 -0.2677020875403288 -0.1034880725620204 -0.06791910957714166 0.6073903358824502 -0.1847708102677506 
-0.1843274618114643 0.5224797908881433 -0.08855938058237757 -0.2058242476242116 0 -0.03391568647823782 -0.04889981950715143 
-0.1024097029658577 -0.1003619350540669 -1.734723475976807e-18 -0.02519256921841308 -0.2710688384720103 -0.3400408528180796 0.8411519200066133 
0 0 0 0 0 0 0 
-0.02021597833676112 0 0 0 -0.2663744863881321 -0.1362973013001091 0.4755042433939556 
0 -0.02133365952733075 0.4637897444220679 -0.03443463181627525 0 -0.4711467981971739 0 
0 0 0.7699529253107504 0.5658343688585912 -0.3280237128491595 -0.3075134545434791 -0.09246103264451304 
0 -0.007152268221877089 0 -0.006254949179063996 -0.1530161432689262 0.1866706163695039 -0.07646464477177908 
-0.2419350417173706 -0.2126443269993282 -6.938893903907228e-18 -0.1224111431008385 -0.111791436162693 0.4735207065671821 -0.1515788709822844 
-0.01412611372930883 -0.07538350151605806 0.1193147087983933 0.02295453939368974 -0.1711623291462271 0 0 
0.1483544613267222 -0.01717894349876148 -0.1332371371769298 -0.133826057746407 -0.03826000577302525 -0.04691000351908124 1.734723475976807e-18 
-0.3354658241136249 -0.08991566298207544 0.9130971576816367 0.8024387789916679 0.2779785998275779 -0.9889906405661381 -0.09300208762014654 
-0.265666640291491 -0.007969476400565412 0 -0.04672129407742644 0.2537253004763638 -0.01909556049905596 -0.02707111426988564 
0 0 0 0 -0.03553169619199552 -0.1252117626641431 0.05913481679979157 
-0.03782517728706675 -0.1404818059112851 -0.4268934103145515 0.8085415648975107 -0.2067228327425884 1.387778780781446e-17 0 
0.428512110775158 -0.6408969857770891 0.2139675069352845 0.02973842511150928 -0.1791111548024229 -0.1140090456134298 0.2894398466960602 
-0.08997568926060283 0.247984161081588 -0.5729543105002923 -0.3141618734917164 -0.02469468810358056 0.1642204004216055 -0.04605845161873956 
-0.5485902834419251 0.06366201692263113 0.4568658309983093 -0.02216952250695928 0.1688703665439131 -0.1968836019232847 -0.2009490237751707 
-0.8803663176867902 0.1210566444627473 -0.3731171484988191 -0.01131928964350455 -0.4639048085096328 0.7307245788254119 0.09394306504989308 
-0.08563689152485854 -0.02720123253162525 -0.3188025953390608 -0.01313868343321196 -0.07829722749610413 -0.1489703432461838 0.429742779782329 
0 -0.07618805235496338 -0.1328880081000302 -0.02406601841988988 0 6.938893903907228e-18 0 
-1.212877469778511 1.06681127742589 -0.1577864803743618 0.1682018737418468 -0.00758728923340316 -2.081668171172169e-17 0 
0 0 0 0 -0.03553169619199552 -0.1252117626641431 0.05913481679979157 
-0.003894372132388825 -0.06966879896501975 -0.05467167622704737 0.2678159690517893 0.8517525613322201 -0.3801789398926514 -0.1927390840953544 
0.8103885551496499 -0.03837075399700905 -0.03206524162619498 -0.03650123690504761 -0.6404174124468875 -0.01559314717780295 -0.10995448358816 
-0.05758049230917391 0 -0.2294629992366058 0 -0.01001341033972716 -0.03877479295091915 0.1015875219876373 
0.325592597060097 -0.06705911166746065 0 -0.02333102907117067 -0.04416999497774931 -0.1909545746648355 0 
0 -0.08907188714114508 0 0 0 0 0 
0 0 -0.3198877240358337 0 -0.5468129497731226 -0.1715907016955845 0.664584792001651 
-0.2431189885215135 -0.1422056526958224 -0.5744535566096093 -0.4799278218435216 -0.6946201892065775 0.8121990073033736 1.734723475976807e-18 
-0.06352965062040818 0 0 0 0.2424350115220119 -0.1030797302436297 0 
0 0 -0.08725879693436997 0 0 -0.1489703432461838 0.1152520961753035 
0 -0.06945866432630067 0 0 0 0 0 
-0.05701688879064064 0.3527409527235488 -0.4871736780994531 -0.5024278764917655 -0.1675428046596857 0.1977525735291795 -0.2067297361389877 
0 -0.02133365952733075 0.4637897444220679 -0.03443463181627525 0 -0.4711467981971739 0 
1.142275950931204 0.03856521522404289 0.07867757026041723 -0.08040599521021889 -1.084753111981565 -0.3224197955259484 -0.3162611993649876 
-0.1271997420874767 0.225039983661467 -0.1936859934021473 0.2173293594004062 -0.1306812476933 -0.006372753346206746 -0.0419826433642351 
0 0 -0.08725879693436997 0 0 -0.1489703432461838 0.1152520961753035 
-0.01540498833716139 -0.01236042956775427 0 -0.03349833229719516 0 0.1833485382412409 -0.1394155671235816 
0 -0.04753440978066963 0 0 0 0 0.08352191897761257 
0 -0.02720123253162525 0 0 0 0 0 
-0.02882267259348364 -0.06945866432630067 0 0 -0.07229134205417842 -0.0821365121129924 0.1078600183456943 
0.1115073121222729 -0.1482550040488065 -0.03206524162619499 -0.1174469801146902 0.253010478476127 -0.237317672295377 -0.1449018752209019 
0 0 -0.08752035641452977 -0.02504474878591561 0.05029958998870415 0 -0.1274869019900795 
-0.007659009094046439 2.602085213965211e-17 1.734723475976807e-17 -0.03349833229719515 -0.02671136021695471 0.1833485382412408 -0.1982816204017734 
-0.03662030491636258 0.3071589986291774 -0.09652961480644802 1.734723475976807e-18 -0.05545034765915342 -0.2665833684528941 0.10897769411837 
-0.1843274618114643 0.4546670973264377 -0.1397374189355171 0.3381543928058947 6.938893903907228e-18 -0.2251904784463454 -0.04889981950715142 
-0.03215341542493712 0 -0.02204962318332651 -0.02454244514903348 0 -0.1072400960035766 0.08533195689067488 
0 0 0 -0.03349833229719516 0 0.1833485382412408 -0.1394155671235816 
-0.1232620010706305 -0.008074953722549837 0 -0.1276763809530202 0 0 0.1353222706748642 
-0.1814946873731643 1.437827923132615 -0.3395723891333511 -0.1784146774607894 -0.08454122683185925 -0.8585342298264884 -0.1231607839985928 
0.07481658592674528 0.06903001973133693 -0.41158929417379 -0.4358954978319167 -0.04103749018457396 -0.02822597575561035 -0.2344920568136592 
0 0 0 -0.02406601841988986 0 0 0 
-0.08328560257882699 6.938893903907228e-18 1.47684031836056 -0.2692929604981575 -0.09208259720305599 -0.8475867534622408 -0.08342224287421775 
0 0 -0.5744535566096094 -0.4558618034236318 0 0.1832953379693666 0 
0 -0.09362234052992881 -6.938893903907228e-18 -0.006164101837934636 0.7440748518045541 -0.3183845178661321 -0.08427117503005109 
0 -0.007152268221877089 0 -0.006254949179063996 -0.1530161432689262 0.1866706163695039 -0.07646464477177908 
-0.1232620010706305 -0.008074953722549844 -0.05249898206814183 -0.1276763809530202 0 -0.09986683402272518 0.3469295651178191 
0 0 0.1361046850295911 -0.2692929604981575 -0.09208259720305599 0 0 
0 -0.06966879896501975 -0.7045652816962782 -0.2929932886170838 0.9201474399197097 0 -0.06525218210527484 
0 -0.05488415153816498 0 0 0 0 0.1124488820124807 
-0.1749858206247832 0.1741882104153611 -0.2226853537184994 -0.3745636378215179 0.1348222994494639 0.08597518132997053 -0.1181559290937704 
-0.1064567093271115 0 0 0.09997720362897808 -0.09983045177930333 -0.06667428549686237 0.3031075790768605 
-0.1161438596017888 -0.07524359364164032 0.1697655162022478 0.2277050216306966 -0.1626926087692244 -0.07881304408338462 -0.08342224287421773 
-0.04453141955142184 -0.04113503158441256 0.5422915015627916 0.1876327544760896 -5.204170427930421e-18 -0.5254416991365093 -0.1059921694786085 
-0.0357944185686979 -0.2952240661761402 -0.2913847991163105 -0.1787970527187164 -0.02671136021695471 0.9719311709940034 -0.1668921771984942 
0 0 0 0 -0.08454122683185927 0 -0.00430767668601602 
0 -0.1172858342373539 0 -0.1699094792777175 0 0.2455996423872867 0 
-0.1024097029658577 -0.1003619350540669 -1.734723475976807e-18 -0.02519256921841308 -0.2710688384720103 -0.3400408528180796 0.8411519200066133 
-0.02366918098197225 0.08488924087096299 -0.1064291173952387 -0.4878947870585429 0.08838962247882642 -0.3111758604336171 0.2854736880510246 
0 -0.04753440978066963 0 0 -0.03553169619199552 -0.1252117626641431 0.1426567357774041 
-0.02882267259348364 -0.06945866432630067 0 0 -0.07229134205417842 -0.0821365121129924 0.1078600183456943 
-0.06863153204004474 0 0 0 -0.06426994818294199 0 0.09398668939274418 
-0.01540498833716138 -0.01236042956775428 1.040834085586084e-17 -0.03349833229719518 -0.0267113602169547 0.1833485382412408 -0.3298964967863109 
-0.02021597833676112 -0.04753440978066963 0 0 -0.2663744863881322 -0.1362973013001091 0.5590261623715682 
0.6708683349624958 -0.3258305298552852 -0.07191339843064766 -0.02411545560985979 0 0 -0.2892336013101354 
-0.1761510291616094 -0.008074953722549837 -0.1241656805420728 -0.1276763809530202 0 -0.1232812140662764 0.2535326992961874 
0 -0.1498298653885012 -0.354285669999423 -0.1497807311243591 0 0.7921861488488838 0 
-0.3408898693459112 0.1696425177352572 -0.6859233762655609 -0.000814612092045494 0.9678831117850639 -0.7636095704946452 -0.03510437043326158 
0 0 -0.01016808806756772 -0.02481255128300866 0 -0.05345794436567172 0.1827633108722497 
0 -5.204170427930421e-18 0 0 -0.3310780451007183 0.6491884375261546 0 
-0.3427255044393308 0.1185694992366128 -0.1900312929737971 0.01045983277087493 0.07982084137890394 0.0281316630457553 -0.2792727836973192 
-0.4570051698888717 0.0150174617621807 0.430277029567608 0.3468775499198275 0.2081818305918667 -0.3357394302990893 -0.02505214786586714 
1.387778780781446e-17 0 0.3052479526936282 0.2841933959145532 -0.2989402983096226 3.469446951953614e-18 0 
-0.3408898693459112 0.3844923065793844 0 -0.0008146120920455009 -0.2847075455404011 -1.734723475976807e-18 0 
-0.3408898693459112 0.1910184199870671 -0.1328880081000302 -0.1707240913697629 -0.284707545540401 0.2455996423872867 0 
-0.5440701790732805 -0.09408558366205833 -0.3596426739833389 -0.2871316124561868 0.6211450593710302 -0.04102887407049088 0.09567700440909285 
-0.1161438596017888 -0.07524359364164032 0.1697655162022478 0.2277050216306966 -0.1626926087692244 -0.07881304408338462 -0.08342224287421773 
-0.2995155340265446 -0.01548581096626643 -1.387778780781446e-17 0 -0.01001341033972716 0.2753901480312838 -0.2218850660552454 
-0.1024097029658577 0 -0.1400193384826715 -0.05023731800432867 -0.2207692484833063 -0.2338510641443401 0.3208853531964146 
-0.08563689152485854 0 -0.2315437984046914 -0.01313868343321196 -0.07829722749610413 0 0.3144906836070254 
-0.86582321389605 -0.4466978011160829 2.140590499581376 -0.1748512985629666 -0.3314521695320932 -0.4472538060489725 -0.07810136255268388 
0.325592597060097 -0.06705911166746065 0 -0.02333102907117067 -0.04416999497774931 -0.1909545746648355 0 
-0.08879837219718735 0 -0.01016808806756772 -0.02481255128300866 -0.1355734409101752 -0.1915015329123474 0.4715552874976764 
-0.1228642380836194 0.008668371480786368 -0.08752035641452977 -0.0250447487859156 -0.2812119865247824 -0.008542659539330724 0.2675728249478333 
-0.0567834002233677 -0.04753440978066963 0.1827448001024017 0.1793465482322119 -0.1542261647681897 -0.3954648082138974 0.2608671643987275 
0.8592675379987151 -0.1020928320170639 0.290033058085637 0.1920410534177524 0.7941271403309851 -1.19627619038993 -0.3158913245924261 
-0.09987841801270542 -0.02720123253162525 0 0 0 -0.2135902024680686 0 
-0.265666640291491 -0.07742814072686613 0 -0.04672129407742644 0.2537253004763638 -0.01909556049905596 -0.02707111426988565 
0.07481658592674528 0.01414586819317195 0.1289006319003537 0.1299388710266746 -0.4536024298655931 -0.5440738915149059 0.1046607039111755 
-0.3803315845070113 0 0 -0.03422444913221603 0 0 0 
0 -0.09362234052992881 -6.938893903907228e-18 -0.006164101837934636 0.7440748518045541 -0.3183845178661321 -0.08427117503005109 
0 -0.09758794774659296 0 0 -0.09242124192027472 0.2099871373263837 -0.1105261573248802 
0.2558282290095156 -0.3517390333238501 0.2227656261505813 0.5017855225817143 -0.1554663203010781 -0.09243134096494045 -0.2051602018400241 
-0.1202494597062619 -0.2432847433925183 1.105590516740984 -1.147777887725157 -0.610623136492543 0.4385658431764476 -0.2592650458473093 
-0.154857857908855 -0.6440379330409325 0.05639015406299649 -0.1148423930115697 -0.2009417801686707 0.6093632339683837 -0.1509021126219627 
0 -0.137271357888006 0.08492664667645167 0.274685679931949 -0.09208259720305599 -0.1912747919681078 0 
-0.05288301822887481 -0.109067041873109 0 -0.006254949179063986 0.4021452203458654 -0.01595834824901386 -0.08864859882065154 
-0.03662030491636257 0.1705144356119231 -0.0967911742866078 -0.02504474878591561 0.05029958998870413 1.387778780781446e-17 -0.1274869019900795 
-0.265666640291491 -0.007969476400565412 0 -0.04672129407742644 0.2537253004763638 -0.01909556049905596 -0.02707111426988564 
-0.05357561506372997 0 -0.02204962318332651 -0.0134582308334593 0.5552683896149598 -0.04675043366997936 -3.090256942561709e-05 
0.4893736475893322 0.2942524953251442 -0.5115693230016911 -0.2237289553042635 3.469446951953614e-18 0 -0.2730868150625935 
0.05525570262378861 0.05759545289703425 0.03359008540180444 -0.01060165036848923 -0.2565748169861218 0.03475252423857453 -0.05819763078517066 
-0.1749858206247832 0.04406912074923222 -0.1377587070420479 -0.09362300871050458 0.280297072347193 -0.2919702270076414 -0.03738360763597538 
0 -0.04753440978066963 0 0 -0.03553169619199552 -0.1252117626641431 0.1426567357774041 
-0.04453141955142184 -0.2235181603249136 -0.08129926888446441 0.1255386992196025 0.5579719687962811 -0.240831131227071 -0.1077467096867189 
-0.1542684235649034 -0.5205603364032785 -0.004710633039682388 0.3113282080027845 -0.2346343622327023 -0.707779233931171 0.2744011448241174 
0 -0.137271357888006 0.08492664667645167 0.274685679931949 -0.09208259720305599 -0.1912747919681078 0 
0.1637729508961447 -0.09071441629993889 -0.09231095519718646 0.03463396771527362 0.4487015057990467 -0.1759439590379172 -0.1605599392009462 
-0.1737243519109626 -0.1282113929931107 0.3989989122892498 0.1582333437984291 -0.3715917383678763 0.6553518936022512 -0.3053073089294631 
-0.4366652701271968 -0.02432112327775891 0.1391687025436615 0.1061378566521622 -0.0495313439023233 -0.1247645028717679 0.03378101088490448 
-0.06097608801842077 -0.0694586643263007 -0.3419373472191605 -0.04695656313065443 -0.6191042918273008 -0.1103088269461599 0.71836120011444 
0 -0.1003370125379038 0 -0.09035730771312961 0 0.3716319820836708 -0.04171570284913234 
-0.08879837219718735 0 0 0 -0.1355734409101752 -0.1380435885466758 0.2887919766254268 
-0.03278674424835788 -0.1691963469534571 -0.386088339039774 -0.1121042304121061 0.2015270284995697 0.2523101474603644 -0.4618708847326853 
0 -0.007152268221877089 0 -0.006254949179063996 -0.1530161432689262 0.1866706163695039 -0.07646464477177908 
-0.2378065243753313 0 -0.1656799745252134 0 -0.02671136021695472 0.6905070977293181 -0.03989103129047886 
0 -0.09758794774659296 -0.06082547429858062 0 -0.09242124192027472 0.222606320200238 -0.1105261573248802 
-0.1716994493290344 -0.08208538406979016 -1.387778780781446e-17 0 -0.3940642400193743 0 0.7492010264152322 
0 -0.137271357888006 -0.0511780383531395 0.5439786404301066 0 -0.1912747919681078 0 
-0.03215341542493712 0 -0.02204962318332651 -0.02454244514903348 0 -0.1072400960035766 0.08533195689067488 
-0.06794788694727476 -0.1404818059112851 0.4978884338066738 0.3424460030462878 -0.2067228327425884 -0.4084424119711538 -0.2483705664150128 
0 -0.09758794774659296 -0.06082547429858062 0 -0.09242124192027472 0.222606320200238 -0.1105261573248802 
-0.03215341542493712 0 -0.02204962318332651 -0.02454244514903348 0 -0.1072400960035766 0.08533195689067488 
0 0 -0.06082547429858062 0 0 0.01261918287385426 0 
-0.2378065243753313 0.05059325708289719 0.3579630531875118 -0.05991482707254572 -0.474430939277842 0.2771510813596196 -0.1900014164412568 
0 -0.02720123253162525 0 0 0 0 0 
-0.05288301822887481 -0.1019147736512319 0 0 0.6397025904466507 -0.2026289646185179 -0.007876277362856256 
-0.1157596011850667 -0.02720123253162525 0.605979248782165 -0.4792342452844353 -0.07829722749610411 -0.5574127552173374 0.1813722133673162 
-0.02021597833676112 0 0 0 -0.2663744863881321 -0.1362973013001091 0.4755042433939556 
0.325592597060097 -0.06705911166746065 0 -0.02333102907117067 -0.04416999497774931 -0.1909545746648355 0 
0 0.7060950864571837 0 -0.3285811269475163 -0.02730709121726053 -0.5382811238035752 0 
-0.06863153204004474 0 0 0 -0.06426994818294199 0 0.09398668939274418 
-0.07779647064593503 -3.469446951953614e-18 0 0 -0.2763878967278592 0.03326236696478847 0.2536191773387103 
-0.1161438596017888 -0.1925294278789939 -0.4046880404073617 -0.3980662610706535 -0.1626926087692243 0.3500819362732688 -0.08342224287421773 
-0.2906955524663103 -0.02133365952733076 0.1214451072866399 -0.03443463181627521 -1.734723475976807e-18 -0.003787748556857484 0.2899266917737993 
-0.03215341542493712 0 -0.02204962318332651 -0.0134582308334593 0 -0.03993015137882388 0.08533195689067488 
0 0.06697604135839057 0 -0.05653567572213452 -0.3320926926877497 0 -0.05249431560173314 
-0.6453038905677118 0.3077687180939038 -0.221759632438559 0.08441394044283318 -0.5231580094057471 0.04586718399663968 0.1194416014817291 
-0.1051678285959622 -0.01358875336327862 -0.08752035641452975 -0.03120885062385015 0.2724083836942734 -0.4305909138453592 -0.09208335665589551 
-0.1228642380836194 0 0 0 -0.1483327829072603 -0.008542659539330724 0.4301640973711743 
0 -0.02720123253162525 0 0 0 0 0 
1.187504811864063 -0.08592324647574039 0.03716471122958377 -0.07864907422266196 -1.055099296507962 -0.2961671214437678 -0.6539316651774362 
-0.1764398531473492 -0.01358875336327863 -0.1095699795978562 -0.03850297961937488 0.1480150756531332 -0.306996637844528 -0.05209154578800185 
-0.4342071315610495 -0.6664514454631241 -0.8993166053332046 -0.7691097700177209 -0.5042827529832045 -0.5263679659298505 -0.6091238548652668 
